0	0	0	0	0	0	0	0	
-0.7582245523576018	-0.6519935031901118	-1	-1	-1	-1	-1	-1	


0	0	0	0	0	0	0	0	
-0.7743324403839825	-0.6327790070545847	-1	-1	-1	-1	-1	-1	


0	0	0	0	0	0	0	0	
-0.8136763305150447	-0.5813181823748261	-1	-1	-1	-1	-1	-1	


0	0	0	0	0	0	0	0	
-0.8330079530712604	-0.5532610144588435	-1	-1	-1	-1	-1	-1	


0	0	0	0	0	0	0	0	
-0.8842383909646004	-0.4670358315422218	-1	-1	-1	-1	-1	-1	


0	0	0	0	0	0	0	0	
-0.930327540650144	-0.3667296921546642	-1	-1	-1	-1	-1	-1	


0	0	0	0	0	0	0	0	
-0.9553022994235911	-0.2956307100353401	-1	-1	-1	-1	-1	-1	


0	0	0	0	0	0	0	0	
-0.982097994009791	-0.1883707253315766	-1	-1	-1	-1	-1	-1	


0	0	0	0	0	0	0	0	
-0.9967414901952569	-0.08066226951517388	-1	-1	-1	-1	-1	-1	


0	0	0	0	0	0	0	0	
-0.9999631852412154	0.008580685418002392	-1	-1	-1	-1	-1	-1	


0	0	0	0	0	0	0	0	
-0.9937022275321512	0.1120530365391354	-1	-1	-1	-1	-1	-1	


0	0	0	0	0	0	0	0	
-0.9800608147718515	0.1986977587914237	-1	-1	-1	-1	-1	-1	


0	0	0	0	0	0	0	0	
-0.9581363201572298	0.2863124027972983	-1	-1	-1	-1	-1	-1	


0	0	0	0	0	0	0	0	
-0.921059180453497	0.3894226317284764	-1	-1	-1	-1	-1	-1	


0	0	0	0	0	0	0	0	
-0.8752045408902857	0.4837530481609643	-1	-1	-1	-1	-1	-1	


0	0	0	0	0	0	0	0	
-0.818973441534513	0.5738314230339041	-1	-1	-1	-1	-1	-1	


0	0	0	0	0	0	0	0	
-0.7501443705510443	0.6612740909264309	-1	-1	-1	-1	-1	-1	


0	0	0	0	0	0	0	0	
-0.7092105266764003	0.7049967580431721	-1	-1	-1	-1	-1	-1	


0	0	0	0	0	0	0	0	
-0.6640871735689725	0.7476551517251608	-1	-1	-1	-1	-1	-1	


0	0	0	0	0	0	0	0	
-0.6396234454764467	0.7686883946026758	-1	-1	-1	-1	-1	-1	


0	0	0	0	0	0	0	0	
-0.603237602632329	0.7975615303977496	-1	-1	-1	-1	-1	-1	


0	0	0	0	0	0	0	0	
-0.5149701189847982	0.8572081290753039	-1	-1	-1	-1	-1	-1	


0	0	0	0	0	0	0	0	
-0.4206034175929195	0.9072446004849829	-1	-1	-1	-1	-1	-1	


0	0	0	0	0	0	0	0	
-0.4084842536404229	0.9127653666347264	-1	-1	-1	-1	-1	-1	


0	0	0	0	0	0	0	0	
-0.3808506943551162	0.9246365494664517	-1	-1	-1	-1	-1	-1	


0	0	0	0	0	0	0	0	
-0.3577966616370813	0.9337995228748834	-1	-1	-1	-1	-1	-1	


0	0	0	0	0	0	0	0	
-0.2907370026931224	0.9568030075543343	-1	-1	-1	-1	-1	-1	


0	0	0	0	0	0	0	0	
-0.2821721905667939	0.9593637760884747	-1	-1	-1	-1	-1	-1	


0	0	0	0	0	0	0	0	
-0.1977789603551645	0.9802466438814419	-1	-1	-1	-1	-1	-1	


0	0	0	0	0	0	0	0	
-0.1908748123015384	0.9816143876435657	-1	-1	-1	-1	-1	-1	


0	0	0	0	0	0	0	0	
-0.1001990596278732	0.9949674107475531	-1	-1	-1	-1	-1	-1	


0	0	0	0	0	0	0	0	
-0.03512393072516668	0.9993829643787279	-1	-1	-1	-1	-1	-1	


0	0	0	0	0	0	0	0	
0.04735974887683499	0.9988778975361919	-1	-1	-1	-1	-1	-1	


0	0	0	0	0	0	0	0	
0.1116887267142955	0.9937432406436481	-1	-1	-1	-1	-1	-1	


0	0	0	0	0	0	0	0	
0.06172884666908104	0.9980929563366856	-1	-1	-1	-1	-1	-1	


0	0	0	0	0	0	0	0	
0.02727625893153891	0.999627933632659	-1	-1	-1	-1	-1	-1	


0	0	0	0	0	0	0	0	
0.07854684037286987	0.9969104241943901	-1	-1	-1	-1	-1	-1	


0	0	0	0	0	0	0	0	
0.1287815478678431	0.9916729868907201	-1	-1	-1	-1	-1	-1	


0	0	0	0	0	0	0	0	
0.1089223796888214	0.9940502578858497	-1	-1	-1	-1	-1	-1	


0	0	0	0	0	0	0	0	
0.0640123782732662	0.9979491046279867	-1	-1	-1	-1	-1	-1	


0	0	0	0	0	0	0	0	
0.1362885127778481	0.9906691886219144	-1	-1	-1	-1	-1	-1	


0	0	0	0	0	0	0	0	
0.1304955838459967	0.9914488905620362	-1	-1	-1	-1	-1	-1	


0	0	0	0	0	0	0	0	
0.1214376038170841	0.9925990672870719	-1	-1	-1	-1	-1	-1	


0	0	0	0	0	0	0	0	
0.1696693495442786	0.9855010460802268	-1	-1	-1	-1	-1	-1	


0	0	0	0	0	0	0	0	
0.2092455376455102	0.9778631320258686	-1	-1	-1	-1	-1	-1	


0	0	0	0	0	0	0	0	
0.1735944472693197	0.9848172256196879	-1	-1	-1	-1	-1	-1	


0	0	0	0	0	0	0	0	
0.1195875150242758	0.9928236632203721	-1	-1	-1	-1	-1	-1	


0	0	0	0	0	0	0	0	
0.182583020979332	0.9831904395640048	-1	-1	-1	-1	-1	-1	


0	0	0	0	0	0	0	0	
0.148817704549393	0.9888646473671964	-1	-1	-1	-1	-1	-1	


0	0	0	0	0	0	0	0	
0.1462389232934752	0.9892492998804523	-1	-1	-1	-1	-1	-1	


0	0	0	0	0	0	0	0	
0.1076455616943258	0.9941893346076054	-1	-1	-1	-1	-1	-1	


0	0	0	0	0	0	0	0	
0.07189075640238049	0.9974125120249362	-1	-1	-1	-1	-1	-1	


0	0	0	0	0	0	0	0	
0.03183314960837841	0.9994931968682982	-1	-1	-1	-1	-1	-1	


0	0	0	0	0	0	0	0	
0.08455662185999074	0.9964186759086898	-1	-1	-1	-1	-1	-1	


0	0	0	0	0	0	0	0	
0.1352676085287701	0.9908091007267279	-1	-1	-1	-1	-1	-1	


0	0	0	0	0	0	0	0	
0.1183133739828025	0.9929763066341541	-1	-1	-1	-1	-1	-1	


0	0	0	0	0	0	0	0	
0.1811408979582447	0.9834571546777627	-1	-1	-1	-1	-1	-1	


0	0	0	0	0	0	0	0	
0.2260463015047109	0.9741165585165059	-1	-1	-1	-1	-1	-1	


0	0	0	0	0	0	0	0	
0.1793738521375246	0.9837809823173781	-1	-1	-1	-1	-1	-1	


0	0	0	0	0	0	0	0	
0.1301135162094335	0.9914991038319789	-1	-1	-1	-1	-1	-1	


0	0	0	0	0	0	0	0	
0.1116581517926801	0.9937466765419861	-1	-1	-1	-1	-1	-1	


0	0	0	0	0	0	0	0	
0.08017632667024753	0.9967806963628789	-1	-1	-1	-1	-1	-1	


0	0	0	0	0	0	0	0	
0.04455386363137069	0.9990069835769504	-1	-1	-1	-1	-1	-1	


0	0	0	0	0	0	0	0	
0.02332898941885357	0.9997278420913839	-1	-1	-1	-1	-1	-1	


0	0	0	0	0	0	0	0	
0.07235707066108198	0.9973787917964504	-1	-1	-1	-1	-1	-1	


0	0	0	0	0	0	0	0	
0.07648104466994526	0.9970710354865364	-1	-1	-1	-1	-1	-1	


0	0	0	0	0	0	0	0	
0.126451916470316	0.9919727379424216	-1	-1	-1	-1	-1	-1	


0	0	0	0	0	0	0	0	
0.1754619474517308	0.9844862137157868	-1	-1	-1	-1	-1	-1	


0	0	0	0	0	0	0	0	
0.1437296628627144	0.9896169885432294	-1	-1	-1	-1	-1	-1	


0	0	0	0	0	0	0	0	
0.1966211925327409	0.9804795289280663	-1	-1	-1	-1	-1	-1	


0	0	0	0	0	0	0	0	
0.2302018808161893	0.9731428949895741	-1	-1	-1	-1	-1	-1	


0	0	0	0	0	0	0	0	
0.1959505932331549	0.9806137695400645	-1	-1	-1	-1	-1	-1	


0	0	0	0	0	0	0	0	
0.1764722421660175	0.9843056170442687	-1	-1	-1	-1	-1	-1	


0	0	0	0	0	0	0	0	
0.2338363383375807	0.9722759725884789	-1	-1	-1	-1	-1	-1	


0	0	0	0	0	0	0	0	
0.2561551143909279	0.9666356900980694	-1	-1	-1	-1	-1	-1	


0	0	0	0	0	0	0	0	
0.2372434501329163	0.9714502279422401	-1	-1	-1	-1	-1	-1	


0	0	0	0	0	0	0	0	
0.2372434501329163	0.9714502279422401	-0.7576963054486504	-0.6526073158565305	-1	-1	-1	-1	


0	0	0	0	0	0	0	0	
0.2372434501329163	0.9714502279422401	-0.8237026123785446	-0.5670220510357258	-1	-1	-1	-1	


0	0	0	0	0	0	0	0	
0.2652656823576269	0.9641753563348021	-0.8237026123785446	-0.5670220510357258	-1	-1	-1	-1	


0	0	0	0	0	0	0	0	
0.2652656823576269	0.9641753563348021	-0.8811837220358026	-0.4727739925367399	-1	-1	-1	-1	


0	0	0	0	0	0	0	0	
0.3064739527670293	0.9518790449817417	-0.8811837220358026	-0.4727739925367399	-1	-1	-1	-1	


0	0	0	0	0	0	0	0	
0.3064739527670293	0.9518790449817417	-0.9282256904536172	-0.3720175635395533	-1	-1	-1	-1	


0	0	0	0	0	0	0	0	
0.3455801397318531	0.9383892406794277	-0.9282256904536172	-0.3720175635395533	-1	-1	-1	-1	


0	0	0	0	0	0	0	0	
0.3467199630311646	0.9379686920338375	-0.9282256904536172	-0.3720175635395533	-1	-1	-1	-1	


0	0	0	0	0	0	0	0	
0.3467199630311646	0.9379686920338375	-0.9638097119741762	-0.2665911459599803	-1	-1	-1	-1	


0	0	0	0	0	0	0	0	
0.3614870421497883	0.9323771331160998	-0.9638097119741762	-0.2665911459599803	-1	-1	-1	-1	


0	0	0	0	0	0	0	0	
0.3614870421497883	0.9323771331160998	-0.9873508831312239	-0.1585504133706127	-1	-1	-1	-1	


0	0	0	0	0	0	0	0	
0.3614870421497883	0.9323771331160998	-0.9985727418963931	-0.05340860550060921	-1	-1	-1	-1	


0	0	0	0	0	0	0	0	
0.3614870421497883	0.9323771331160998	-0.9983733480446644	0.05701454125122237	-1	-1	-1	-1	


0	0	0	0	0	0	0	0	
0.3902019850062927	0.920729282089556	-0.9983733480446644	0.05701454125122237	-1	-1	-1	-1	


0	0	0	0	0	0	0	0	
0.3902019850062927	0.920729282089556	-0.9860166163046673	0.1666470292897367	-1	-1	-1	-1	


0	0	0	0	0	0	0	0	
0.3902019850062927	0.920729282089556	-0.963439446398762	0.2679261710300935	-1	-1	-1	-1	


0	0	0	0	0	0	0	0	
0.3902019850062927	0.920729282089556	-0.9277054922313885	0.3733128978266316	-1	-1	-1	-1	


0	0	0	0	0	0	0	0	
0.3902019850062927	0.920729282089556	-0.8849806756935787	0.4656277522323349	-1	-1	-1	-1	


0	0	0	0	0	0	0	0	
0.3902019850062927	0.920729282089556	-0.8464270863256348	0.5325046361622557	-1	-1	-1	-1	


0	0	0	0	0	0	0	0	
0.3902019850062927	0.920729282089556	-0.783734462520848	0.6210960410895867	-1	-1	-1	-1	


0	0	0	0	0	0	0	0	
0.3902019850062927	0.920729282089556	-0.7308572171273878	0.6825303862633592	-1	-1	-1	-1	


0	0	0	0	0	0	0	0	
0.3902019850062927	0.920729282089556	-0.6833424042510378	0.7300980472185987	-1	-1	-1	-1	


0	0	0	0	0	0	0	0	
0.3902019850062927	0.920729282089556	-0.6516680452553721	0.7585042905567788	-1	-1	-1	-1	


0	0	0	0	0	0	0	0	
0.3902019850062927	0.920729282089556	-0.6036357095014889	0.7972602650418708	-1	-1	-1	-1	


0	0	0	0	0	0	0	0	
0.3902019850062927	0.920729282089556	-0.5166216668144896	0.8562137895279535	-1	-1	-1	-1	


0	0	0	0	0	0	0	0	
0.3902019850062927	0.920729282089556	-0.4743868810349456	0.8803164698572534	-1	-1	-1	-1	


0	0	0	0	0	0	0	0	
0.3902019850062927	0.920729282089556	-0.4340884335598581	0.9008702636060025	-1	-1	-1	-1	


0	0	0	0	0	0	0	0	
0.3902019850062927	0.920729282089556	-0.4205343854307016	0.9072766009715131	-1	-1	-1	-1	


0	0	0	0	0	0	0	0	
0.3902019850062927	0.920729282089556	-0.4099373552085196	0.9121136797596252	-1	-1	-1	-1	


0	0	0	0	0	0	0	0	
0.3902019850062927	0.920729282089556	-0.3216468776478363	0.9468596971565522	-1	-1	-1	-1	


0	0	0	0	0	0	0	0	
0.3902019850062927	0.920729282089556	-0.2937921376567658	0.955869331996308	-1	-1	-1	-1	


0	0	0	0	0	0	0	0	
0.3902019850062927	0.920729282089556	-0.2294174100825398	0.9733281316960997	-1	-1	-1	-1	


0	0	0	0	0	0	0	0	
0.3902019850062927	0.920729282089556	-0.2000690616967789	0.979781797418063	-1	-1	-1	-1	


0	0	0	0	0	0	0	0	
0.3902019850062927	0.920729282089556	-0.2114600837821085	0.9773866343299685	-1	-1	-1	-1	


0	0	0	0	0	0	0	0	
0.3902019850062927	0.920729282089556	-0.1246177526384824	0.992204825490853	-1	-1	-1	-1	


0	0	0	0	0	0	0	0	
0.3902019850062927	0.920729282089556	-0.03811744824908095	0.9992732659983348	-1	-1	-1	-1	


0	0	0	0	0	0	0	0	
0.3902019850062927	0.920729282089556	0.02297799376125322	0.9997359710457095	-1	-1	-1	-1	


0	0	0	0	0	0	0	0	
0.3902019850062927	0.920729282089556	-0.004512984351943581	0.9999898164342671	-1	-1	-1	-1	


0	0	0	0	0	0	0	0	
0.3902019850062927	0.920729282089556	-0.02627842162197317	0.9996546626495861	-1	-1	-1	-1	


0	0	0	0	0	0	0	0	
0.3902019850062927	0.920729282089556	0.04878856059868639	0.9988091290905926	-1	-1	-1	-1	


0	0	0	0	0	0	0	0	
0.3902019850062927	0.920729282089556	0.1178376370810499	0.9930328752297956	-1	-1	-1	-1	


0	0	0	0	0	0	0	0	
0.3902019850062927	0.920729282089556	0.07238300578172224	0.9973769099362604	-1	-1	-1	-1	


0	0	0	0	0	0	0	0	
0.3902019850062927	0.920729282089556	0.1128190991613211	0.9936155447981014	-1	-1	-1	-1	


0	0	0	0	0	0	0	0	
0.3902019850062927	0.920729282089556	0.0855836672776224	0.9963309871198994	-1	-1	-1	-1	


0	0	0	0	0	0	0	0	
0.3902019850062927	0.920729282089556	0.05671736542326006	0.9983902746218256	-1	-1	-1	-1	


0	0	0	0	0	0	0	0	
0.3902019850062927	0.920729282089556	0.03390325174266298	0.9994251195168519	-1	-1	-1	-1	


0	0	0	0	0	0	0	0	
0.3902019850062927	0.920729282089556	0.1124900436567562	0.993652851894514	-1	-1	-1	-1	


0	0	0	0	0	0	0	0	
0.3902019850062927	0.920729282089556	0.1472317930669658	0.9891020165333231	-1	-1	-1	-1	


0	0	0	0	0	0	0	0	
0.3902019850062927	0.920729282089556	0.1136875477965536	0.9935165531967781	-1	-1	-1	-1	


0	0	0	0	0	0	0	0	
0.3902019850062927	0.920729282089556	0.08465423933091064	0.9964103872217034	-1	-1	-1	-1	


0	0	0	0	0	0	0	0	
0.3902019850062927	0.920729282089556	0.06529858815572571	0.9978657697229969	-1	-1	-1	-1	


0	0	0	0	0	0	0	0	
0.3902019850062927	0.920729282089556	0.05857017959568911	0.9982832934904443	-1	-1	-1	-1	


0	0	0	0	0	0	0	0	
0.3902019850062927	0.920729282089556	0.03773045588128973	0.9992879528439188	-1	-1	-1	-1	


0	0	0	0	0	0	0	0	
0.3902019850062927	0.920729282089556	0.09404439096390976	0.9955680049741592	-1	-1	-1	-1	


0	0	0	0	0	0	0	0	
0.3902019850062927	0.920729282089556	0.1309224630753589	0.9913926107563448	-1	-1	-1	-1	


0	0	0	0	0	0	0	0	
0.3902019850062927	0.920729282089556	0.08737353499035486	0.9961756197494943	-1	-1	-1	-1	


0	0	0	0	0	0	0	0	
0.3902019850062927	0.920729282089556	0.07842259854059078	0.9969202054518412	-1	-1	-1	-1	


0	0	0	0	0	0	0	0	
0.3902019850062927	0.920729282089556	0.07353900235624461	0.9972923418599223	-1	-1	-1	-1	


0	0	0	0	0	0	0	0	
0.3902019850062927	0.920729282089556	0.05993163583016658	0.9982024839814417	-1	-1	-1	-1	


0	0	0	0	0	0	0	0	
0.3902019850062927	0.920729282089556	0.1225491731361365	0.9924624426967749	-1	-1	-1	-1	


0	0	0	0	0	0	0	0	
0.3902019850062927	0.920729282089556	0.1634479507989852	0.9865519587835262	-1	-1	-1	-1	


0	0	0	0	0	0	0	0	
0.3902019850062927	0.920729282089556	0.1119504801194666	0.9937137867620741	-1	-1	-1	-1	


0	0	0	0	0	0	0	0	
0.3902019850062927	0.920729282089556	0.1752422094695754	0.984525351639165	-1	-1	-1	-1	


0	0	0	0	0	0	0	0	
0.3902019850062927	0.920729282089556	0.1496215476329601	0.9887433400452911	-1	-1	-1	-1	


0	0	0	0	0	0	0	0	
0.3902019850062927	0.920729282089556	0.1029748530135791	0.9946839596810797	-1	-1	-1	-1	


0	0	0	0	0	0	0	0	
0.3902019850062927	0.920729282089556	0.07208582430998868	0.9973984328910634	-1	-1	-1	-1	


0	0	0	0	0	0	0	0	
0.3902019850062927	0.920729282089556	0.03616543500716498	0.9993458166774615	-1	-1	-1	-1	


0	0	0	0	0	0	0	0	
0.3902019850062927	0.920729282089556	-0.00239196251775716	0.9999971392535648	-1	-1	-1	-1	


0	0	0	0	0	0	0	0	
0.3902019850062927	0.920729282089556	0.03568735339131748	0.9993630035217049	-1	-1	-1	-1	


0	0	0	0	0	0	0	0	
0.3902019850062927	0.920729282089556	0.1191694656264248	0.9928739287856804	-1	-1	-1	-1	


0	0	0	0	0	0	0	0	
0.3902019850062927	0.920729282089556	0.1778201075312037	0.9840630108674906	-1	-1	-1	-1	


0	0	0	0	0	0	0	0	
0.3902019850062927	0.920729282089556	0.1372572701243362	0.9905354318741026	-1	-1	-1	-1	


0	0	0	0	0	0	0	0	
0.3902019850062927	0.920729282089556	0.09773116517676754	0.9952128512801627	-1	-1	-1	-1	


0	0	0	0	0	0	0	0	
0.3902019850062927	0.920729282089556	0.05545562192099979	0.9984611529735923	-1	-1	-1	-1	


0	0	0	0	0	0	0	0	
0.3902019850062927	0.920729282089556	0.04088628005599867	0.9991638064417577	-1	-1	-1	-1	


0	0	0	0	0	0	0	0	
0.3902019850062927	0.920729282089556	0.005715428644246929	0.9999836668043196	-1	-1	-1	-1	


0	0	0	0	0	0	0	0	
0.3902019850062927	0.920729282089556	-0.02138418578360963	0.9997713321546943	-1	-1	-1	-1	


0	0	0	0	0	0	0	0	
0.3902019850062927	0.920729282089556	0.04740873143151987	0.998875573925028	-1	-1	-1	-1	


0	0	0	0	0	0	0	0	
0.3902019850062927	0.920729282089556	0.04244735585624185	0.9990987048239095	-1	-1	-1	-1	


0	0	0	0	0	0	0	0	
0.3902019850062927	0.920729282089556	0.02721931040936509	0.9996294859300813	-1	-1	-1	-1	


0	0	0	0	0	0	0	0	
0.3902019850062927	0.920729282089556	-0.003018989056521158	0.9999954428421546	-1	-1	-1	-1	


0	0	0	0	0	0	0	0	
0.3902019850062927	0.920729282089556	-0.01178113981186015	0.9999305999641842	-1	-1	-1	-1	


0	0	0	0	0	0	0	0	
0.3902019850062927	0.920729282089556	-0.01086477442705054	0.9999409765964435	-1	-1	-1	-1	


0	0	0	0	0	0	0	0	
0.4154312936942924	0.9096245600353404	-0.01086477442705054	0.9999409765964435	-1	-1	-1	-1	


0	0	0	0	0	0	0	0	
0.447494513075852	0.8942866770599941	-0.01086477442705054	0.9999409765964435	-1	-1	-1	-1	


0	0	0	0	0	0	0	0	
0.447494513075852	0.8942866770599941	-0.03323951212929736	0.9994474147414691	-1	-1	-1	-1	


0	0	0	0	0	0	0	0	
0.447494513075852	0.8942866770599941	-0.04543316915975625	0.9989673804184505	-1	-1	-1	-1	


0	0	0	0	0	0	0	0	
0.4589866322135099	0.8884431728868765	-0.04543316915975625	0.9989673804184505	-1	-1	-1	-1	


0	0	0	0	0	0	0	0	
0.4589866322135099	0.8884431728868765	-0.03775058479176618	0.9992871926267641	-1	-1	-1	-1	


0	0	0	0	0	0	0	0	
0.4589866322135099	0.8884431728868765	-0.00183798952695259	0.9999983108958228	-1	-1	-1	-1	


0	0	0	0	0	0	0	0	
0.455994520630113	0.8899825825010922	-0.00183798952695259	0.9999983108958228	-1	-1	-1	-1	


0	0	0	0	0	0	0	0	
0.4776092666655793	0.8785723580873505	-0.00183798952695259	0.9999983108958228	-1	-1	-1	-1	


0	0	0	0	0	0	0	0	
0.4776092666655793	0.8785723580873505	0.03360313571023613	0.9994352551668564	-1	-1	-1	-1	


0	0	0	0	0	0	0	0	
0.5030141214858986	0.8642781922423876	0.03360313571023613	0.9994352551668564	-1	-1	-1	-1	


0	0	0	0	0	0	0	0	
0.525534631969886	0.8507722084085001	0.03360313571023613	0.9994352551668564	-1	-1	-1	-1	


0	0	0	0	0	0	0	0	
0.5577526183301388	0.830007238971971	0.03360313571023613	0.9994352551668564	-1	-1	-1	-1	


0	0	0	0	0	0	0	0	
0.5577526183301388	0.830007238971971	0.08479760401803413	0.9963981966828326	-1	-1	-1	-1	


0	0	0	0	0	0	0	0	
0.5577526183301388	0.830007238971971	0.06332030155563981	0.9979932561951023	-1	-1	-1	-1	


0	0	0	0	0	0	0	0	
0.5577526183301388	0.830007238971971	0.06548975845190264	0.9978532414828903	-1	-1	-1	-1	


0	0	0	0	0	0	0	0	
0.5577526183301388	0.830007238971971	0.1006329486036514	0.9949236200107698	-1	-1	-1	-1	


0	0	0	0	0	0	0	0	
0.5516787122369452	0.8340567117795922	0.1006329486036514	0.9949236200107698	-1	-1	-1	-1	


0	0	0	0	0	0	0	0	
0.5516787122369452	0.8340567117795922	0.1309540374471731	0.9913884405601492	-1	-1	-1	-1	


0	0	0	0	0	0	0	0	
0.5516787122369452	0.8340567117795922	0.1146408089330198	0.9934070086964271	-1	-1	-1	-1	


0	0	0	0	0	0	0	0	
0.5516787122369452	0.8340567117795922	0.1146408089330198	0.9934070086964271	-0.7533524380828052	-0.657616988858023	-1	-1	


0	0	0	0	0	0	0	0	
0.5516787122369452	0.8340567117795922	0.1456166338354891	0.9893410918133447	-0.7533524380828052	-0.657616988858023	-1	-1	


0	0	0	0	0	0	0	0	
0.5440097963731257	0.8390788648572137	0.1456166338354891	0.9893410918133447	-0.7533524380828052	-0.657616988858023	-1	-1	


0	0	0	0	0	0	0	0	
0.5488391435673243	0.8359279840322884	0.1456166338354891	0.9893410918133447	-0.7533524380828052	-0.657616988858023	-1	-1	


0	0	0	0	0	0	0	0	
0.5488391435673243	0.8359279840322884	0.1456166338354891	0.9893410918133447	-0.8195862879106041	-0.5729557720006985	-1	-1	


0	0	0	0	0	0	0	0	
0.5488391435673243	0.8359279840322884	0.1456166338354891	0.9893410918133447	-0.8702043203407617	-0.4926910196667612	-1	-1	


0	0	0	0	0	0	0	0	
0.5488391435673243	0.8359279840322884	0.1456166338354891	0.9893410918133447	-0.916620185156153	-0.3997592227382626	-1	-1	


0	0	0	0	0	0	0	0	
0.5488391435673243	0.8359279840322884	0.1456166338354891	0.9893410918133447	-0.9553073640989247	-0.2956143435260959	-1	-1	


0	0	0	0	0	0	0	0	
0.5578784726119077	0.8299226528997777	0.1456166338354891	0.9893410918133447	-0.9553073640989247	-0.2956143435260959	-1	-1	


0	0	0	0	0	0	0	0	
0.5578784726119077	0.8299226528997777	0.1456166338354891	0.9893410918133447	-0.9822171145412427	-0.1877486082565605	-1	-1	


0	0	0	0	0	0	0	0	
0.5873145951365827	0.8093587377297856	0.1456166338354891	0.9893410918133447	-0.9822171145412427	-0.1877486082565605	-1	-1	


0	0	0	0	0	0	0	0	
0.5873145951365827	0.8093587377297856	0.1456166338354891	0.9893410918133447	-0.9969888475904618	-0.07754506934836707	-1	-1	


0	0	0	0	0	0	0	0	
0.5873145951365827	0.8093587377297856	0.1456166338354891	0.9893410918133447	-0.9997006152849751	0.0244679340942788	-1	-1	


0	0	0	0	0	0	0	0	
0.5873145951365827	0.8093587377297856	0.1456166338354891	0.9893410918133447	-0.9917222460683418	0.1284016614112266	-1	-1	


0	0	0	0	0	0	0	0	
0.5873145951365827	0.8093587377297856	0.1456166338354891	0.9893410918133447	-0.9771104544288036	0.2127326017467396	-1	-1	


0	0	0	0	0	0	0	0	
0.5873145951365827	0.8093587377297856	0.1456166338354891	0.9893410918133447	-0.9482914787102188	0.3174008056158436	-1	-1	


0	0	0	0	0	0	0	0	
0.5873145951365827	0.8093587377297856	0.1456166338354891	0.9893410918133447	-0.9127787536844691	0.4084543387237148	-1	-1	


0	0	0	0	0	0	0	0	
0.5873145951365827	0.8093587377297856	0.1456166338354891	0.9893410918133447	-0.8619409351592736	0.5070087023875987	-1	-1	


0	0	0	0	0	0	0	0	
0.5873145951365827	0.8093587377297856	0.1456166338354891	0.9893410918133447	-0.8016205890103021	0.5978331132304202	-1	-1	


0	0	0	0	0	0	0	0	
0.5873145951365827	0.8093587377297856	0.1456166338354891	0.9893410918133447	-0.7536557731848323	0.6572693325762068	-1	-1	


0	0	0	0	0	0	0	0	
0.5873145951365827	0.8093587377297856	0.1456166338354891	0.9893410918133447	-0.6760103531014927	0.7368921240585999	-1	-1	


0	0	0	0	0	0	0	0	
0.5873145951365827	0.8093587377297856	0.1456166338354891	0.9893410918133447	-0.6169564424919961	0.7869972986406119	-1	-1	


0	0	0	0	0	0	0	0	
0.5873145951365827	0.8093587377297856	0.1456166338354891	0.9893410918133447	-0.5373712088828011	0.843345826967702	-1	-1	


0	0	0	0	0	0	0	0	
0.5873145951365827	0.8093587377297856	0.1456166338354891	0.9893410918133447	-0.4497980080439641	0.8931303107384062	-1	-1	


0	0	0	0	0	0	0	0	
0.5873145951365827	0.8093587377297856	0.1456166338354891	0.9893410918133447	-0.4256108638781763	0.9049062893741388	-1	-1	


0	0	0	0	0	0	0	0	
0.5873145951365827	0.8093587377297856	0.1456166338354891	0.9893410918133447	-0.3934123093012021	0.9193621456696459	-1	-1	


0	0	0	0	0	0	0	0	
0.5873145951365827	0.8093587377297856	0.1456166338354891	0.9893410918133447	-0.3768852019026608	0.9262599767812439	-1	-1	


0	0	0	0	0	0	0	0	
0.5873145951365827	0.8093587377297856	0.1456166338354891	0.9893410918133447	-0.3592265801205646	0.9332503759093181	-1	-1	


0	0	0	0	0	0	0	0	
0.5873145951365827	0.8093587377297856	0.1456166338354891	0.9893410918133447	-0.2727353481914933	0.9620890966261206	-1	-1	


0	0	0	0	0	0	0	0	
0.5873145951365827	0.8093587377297856	0.1456166338354891	0.9893410918133447	-0.2631057599293651	0.964766997306599	-1	-1	


0	0	0	0	0	0	0	0	
0.5873145951365827	0.8093587377297856	0.1456166338354891	0.9893410918133447	-0.2665821196896877	0.9638122086079596	-1	-1	


0	0	0	0	0	0	0	0	
0.5873145951365827	0.8093587377297856	0.1456166338354891	0.9893410918133447	-0.1744453332659252	0.9846668602637849	-1	-1	


0	0	0	0	0	0	0	0	
0.5873145951365827	0.8093587377297856	0.1456166338354891	0.9893410918133447	-0.1138105786708835	0.9935024671245657	-1	-1	


0	0	0	0	0	0	0	0	
0.5873145951365827	0.8093587377297856	0.1456166338354891	0.9893410918133447	-0.1107683444826523	0.9938462526269204	-1	-1	


0	0	0	0	0	0	0	0	
0.5873145951365827	0.8093587377297856	0.1456166338354891	0.9893410918133447	-0.02966667450120075	0.99955984734484	-1	-1	


0	0	0	0	0	0	0	0	
0.5873145951365827	0.8093587377297856	0.1456166338354891	0.9893410918133447	0.05516987964963939	0.9984769823984148	-1	-1	


0	0	0	0	0	0	0	0	
0.5873145951365827	0.8093587377297856	0.1456166338354891	0.9893410918133447	0.01163815920731779	0.9999322743317495	-1	-1	


0	0	0	0	0	0	0	0	
0.5873145951365827	0.8093587377297856	0.1456166338354891	0.9893410918133447	0.05938237670168427	0.9982353096025302	-1	-1	


0	0	0	0	0	0	0	0	
0.5873145951365827	0.8093587377297856	0.1456166338354891	0.9893410918133447	0.09737447471366815	0.9952478142021901	-1	-1	


0	0	0	0	0	0	0	0	
0.5873145951365827	0.8093587377297856	0.1456166338354891	0.9893410918133447	0.1688104469426224	0.9856485342164478	-1	-1	


0	0	0	0	0	0	0	0	
0.5873145951365827	0.8093587377297856	0.1456166338354891	0.9893410918133447	0.214563152499559	0.9767101174808476	-1	-1	


0	0	0	0	0	0	0	0	
0.5873145951365827	0.8093587377297856	0.1456166338354891	0.9893410918133447	0.1678322310357783	0.9858155721155722	-1	-1	


0	0	0	0	0	0	0	0	
0.5873145951365827	0.8093587377297856	0.1456166338354891	0.9893410918133447	0.221615302443754	0.9751341742154068	-1	-1	


0	0	0	0	0	0	0	0	
0.5873145951365827	0.8093587377297856	0.1456166338354891	0.9893410918133447	0.2860518257680044	0.9582141477638447	-1	-1	


0	0	0	0	0	0	0	0	
0.5873145951365827	0.8093587377297856	0.1456166338354891	0.9893410918133447	0.340899221491105	0.9400998461795207	-1	-1	


0	0	0	0	0	0	0	0	
0.5873145951365827	0.8093587377297856	0.1456166338354891	0.9893410918133447	0.2958939767862196	0.9552207883529524	-1	-1	


0	0	0	0	0	0	0	0	
0.5873145951365827	0.8093587377297856	0.1456166338354891	0.9893410918133447	0.2496727142108818	0.968330282382293	-1	-1	


0	0	0	0	0	0	0	0	
0.5873145951365827	0.8093587377297856	0.1456166338354891	0.9893410918133447	0.2955576296118064	0.9553249120473359	-1	-1	


0	0	0	0	0	0	0	0	
0.5873145951365827	0.8093587377297856	0.1456166338354891	0.9893410918133447	0.3211043004242877	0.9470438364980941	-1	-1	


0	0	0	0	0	0	0	0	
0.5873145951365827	0.8093587377297856	0.1456166338354891	0.9893410918133447	0.3634697170605721	0.9316060137096087	-1	-1	


0	0	0	0	0	0	0	0	
0.5873145951365827	0.8093587377297856	0.1456166338354891	0.9893410918133447	0.3707560259418771	0.9287302995099204	-1	-1	


0	0	0	0	0	0	0	0	
0.5873145951365827	0.8093587377297856	0.1456166338354891	0.9893410918133447	0.3199174864185174	0.947445408392303	-1	-1	


0	0	0	0	0	0	0	0	
0.5873145951365827	0.8093587377297856	0.1456166338354891	0.9893410918133447	0.2538352943025349	0.9672474571516565	-1	-1	


0	0	0	0	0	0	0	0	
0.5873145951365827	0.8093587377297856	0.1456166338354891	0.9893410918133447	0.2917044522862291	0.9565085010162696	-1	-1	


0	0	0	0	0	0	0	0	
0.5873145951365827	0.8093587377297856	0.1456166338354891	0.9893410918133447	0.2948016706486071	0.9555584623573747	-1	-1	


0	0	0	0	0	0	0	0	
0.5873145951365827	0.8093587377297856	0.1456166338354891	0.9893410918133447	0.3297007686239234	0.9440854850959177	-1	-1	


0	0	0	0	0	0	0	0	
0.5873145951365827	0.8093587377297856	0.1456166338354891	0.9893410918133447	0.2947318102924233	0.9555800123494373	-1	-1	


0	0	0	0	0	0	0	0	
0.5873145951365827	0.8093587377297856	0.1456166338354891	0.9893410918133447	0.2438743821847039	0.9698068290716605	-1	-1	


0	0	0	0	0	0	0	0	
0.5873145951365827	0.8093587377297856	0.1456166338354891	0.9893410918133447	0.2706423593590454	0.9626799641212905	-1	-1	


0	0	0	0	0	0	0	0	
0.5873145951365827	0.8093587377297856	0.1456166338354891	0.9893410918133447	0.2168638838826207	0.9762018520097906	-1	-1	


0	0	0	0	0	0	0	0	
0.5873145951365827	0.8093587377297856	0.1456166338354891	0.9893410918133447	0.1679460260170929	0.9857961920930036	-1	-1	


0	0	0	0	0	0	0	0	
0.5873145951365827	0.8093587377297856	0.1456166338354891	0.9893410918133447	0.2136185320135569	0.976917152465025	-1	-1	


0	0	0	0	0	0	0	0	
0.5873145951365827	0.8093587377297856	0.1456166338354891	0.9893410918133447	0.1682858542844292	0.9857382366773442	-1	-1	


0	0	0	0	0	0	0	0	
0.5873145951365827	0.8093587377297856	0.1456166338354891	0.9893410918133447	0.2322606048301116	0.9726535927265939	-1	-1	


0	0	0	0	0	0	0	0	
0.5873145951365827	0.8093587377297856	0.1456166338354891	0.9893410918133447	0.178902947338724	0.9838667264591875	-1	-1	


0	0	0	0	0	0	0	0	
0.5873145951365827	0.8093587377297856	0.1456166338354891	0.9893410918133447	0.2169286521989565	0.9761874614310225	-1	-1	


0	0	0	0	0	0	0	0	
0.5873145951365827	0.8093587377297856	0.1456166338354891	0.9893410918133447	0.2747843730020155	0.9615058753610864	-1	-1	


0	0	0	0	0	0	0	0	
0.5873145951365827	0.8093587377297856	0.1456166338354891	0.9893410918133447	0.332435955136622	0.9431258323958696	-1	-1	


0	0	0	0	0	0	0	0	
0.5873145951365827	0.8093587377297856	0.1456166338354891	0.9893410918133447	0.3682062404500711	0.9297441392628536	-1	-1	


0	0	0	0	0	0	0	0	
0.5873145951365827	0.8093587377297856	0.1456166338354891	0.9893410918133447	0.3145512536490522	0.949240490512183	-1	-1	


0	0	0	0	0	0	0	0	
0.5873145951365827	0.8093587377297856	0.1456166338354891	0.9893410918133447	0.2722661536047598	0.962221981458161	-1	-1	


0	0	0	0	0	0	0	0	
0.5873145951365827	0.8093587377297856	0.1456166338354891	0.9893410918133447	0.2722661536047598	0.962221981458161	-0.7580149739167314	-0.6522371495997579	


0	0	0	0	0	0	0	0	
0.5873145951365827	0.8093587377297856	0.1456166338354891	0.9893410918133447	0.2259965354493186	0.9741281055204726	-0.7580149739167314	-0.6522371495997579	


0	0	0	0	0	0	0	0	
0.5873145951365827	0.8093587377297856	0.1456166338354891	0.9893410918133447	0.2737411426265294	0.9618034034216775	-0.7580149739167314	-0.6522371495997579	


0	0	0	0	0	0	0	0	
0.5873145951365827	0.8093587377297856	0.1456166338354891	0.9893410918133447	0.3264349147972868	0.9452196815562444	-0.7580149739167314	-0.6522371495997579	


0	0	0	0	0	0	0	0	
0.5873145951365827	0.8093587377297856	0.1456166338354891	0.9893410918133447	0.3264349147972868	0.9452196815562444	-0.8228974361639035	-0.5681899414411297	


0	0	0	0	0	0	0	0	
0.5873145951365827	0.8093587377297856	0.1456166338354891	0.9893410918133447	0.2847061853105756	0.9586148277832449	-0.8228974361639035	-0.5681899414411297	


0	0	0	0	0	0	0	0	
0.5873145951365827	0.8093587377297856	0.1456166338354891	0.9893410918133447	0.2847061853105756	0.9586148277832449	-0.8775336037900582	-0.4795151449320792	


0	0	0	0	0	0	0	0	
0.5873145951365827	0.8093587377297856	0.1456166338354891	0.9893410918133447	0.2950048269019055	0.9554957624733753	-0.8775336037900582	-0.4795151449320792	


0	0	0	0	0	0	0	0	
0.5873145951365827	0.8093587377297856	0.1456166338354891	0.9893410918133447	0.2950048269019055	0.9554957624733753	-0.9246534116613991	-0.3808097534241148	


0	0	0	0	0	0	0	0	
0.5873145951365827	0.8093587377297856	0.1456166338354891	0.9893410918133447	0.3321512617157383	0.9432261337243806	-0.9246534116613991	-0.3808097534241148	


0	0	0	0	0	0	0	0	
0.5873145951365827	0.8093587377297856	0.1456166338354891	0.9893410918133447	0.3321512617157383	0.9432261337243806	-0.9608841798007675	-0.2769505244779404	


0	0	0	0	0	0	0	0	
0.5873145951365827	0.8093587377297856	0.1456166338354891	0.9893410918133447	0.3799584376246948	0.9250035598189884	-0.9608841798007675	-0.2769505244779404	


0	0	0	0	0	0	0	0	
0.5873145951365827	0.8093587377297856	0.1456166338354891	0.9893410918133447	0.3984837803279846	0.9171753795297377	-0.9608841798007675	-0.2769505244779404	


0	0	0	0	0	0	0	0	
0.5873145951365827	0.8093587377297856	0.1456166338354891	0.9893410918133447	0.4402774776806592	0.8978617614349976	-0.9608841798007675	-0.2769505244779404	


0	0	0	0	0	0	0	0	
0.5873145951365827	0.8093587377297856	0.1456166338354891	0.9893410918133447	0.4646087858315749	0.8855160507456145	-0.9608841798007675	-0.2769505244779404	


0	0	0	0	0	0	0	0	
0.5873145951365827	0.8093587377297856	0.1456166338354891	0.9893410918133447	0.4646087858315749	0.8855160507456145	-0.985188773367943	-0.1714732656415216	


0	0	0	0	0	0	0	0	
0.5873145951365827	0.8093587377297856	0.1456166338354891	0.9893410918133447	0.4646087858315749	0.8855160507456145	-0.9979662026001829	-0.06374526231627411	


0	0	0	0	0	0	0	0	
0.5873145951365827	0.8093587377297856	0.1456166338354891	0.9893410918133447	0.4712858887395538	0.881980504929088	-0.9979662026001829	-0.06374526231627411	


0	0	0	0	0	0	0	0	
0.5873145951365827	0.8093587377297856	0.1456166338354891	0.9893410918133447	0.4809546314897728	0.876745483278093	-0.9979662026001829	-0.06374526231627411	


0	0	0	0	0	0	0	0	
0.5873145951365827	0.8093587377297856	0.1456166338354891	0.9893410918133447	0.4809546314897728	0.876745483278093	-0.9989066249913602	0.04674991495575465	


0	0	0	0	0	0	0	0	
0.5873145951365827	0.8093587377297856	0.1456166338354891	0.9893410918133447	0.4809546314897728	0.876745483278093	-0.9895734429218409	0.1440291674065151	


0	0	0	0	0	0	0	0	
0.5873145951365827	0.8093587377297856	0.1456166338354891	0.9893410918133447	0.510648011932469	0.8597898626463428	-0.9895734429218409	0.1440291674065151	


0	0	0	0	0	0	0	0	
0.5873145951365827	0.8093587377297856	0.1456166338354891	0.9893410918133447	0.510648011932469	0.8597898626463428	-0.9678779460154384	0.2514205274374706	


0	0	0	0	0	0	0	0	
0.5873145951365827	0.8093587377297856	0.1456166338354891	0.9893410918133447	0.510648011932469	0.8597898626463428	-0.935966183120382	0.3520899090503213	


0	0	0	0	0	0	0	0	
0.5873145951365827	0.8093587377297856	0.1456166338354891	0.9893410918133447	0.510648011932469	0.8597898626463428	-0.891655249633871	0.4527150492311462	


0	0	0	0	0	0	0	0	
0.5873145951365827	0.8093587377297856	0.1456166338354891	0.9893410918133447	0.510648011932469	0.8597898626463428	-0.8358324589901223	0.5489846086171501	


0	0	0	0	0	0	0	0	
0.5873145951365827	0.8093587377297856	0.1456166338354891	0.9893410918133447	0.510648011932469	0.8597898626463428	-0.7916073986424661	0.6110300536098924	


0	0	0	0	0	0	0	0	
0.5873145951365827	0.8093587377297856	0.1456166338354891	0.9893410918133447	0.510648011932469	0.8597898626463428	-0.7598857766745308	0.6500566178478188	


0	0	0	0	0	0	0	0	
0.5873145951365827	0.8093587377297856	0.1456166338354891	0.9893410918133447	0.510648011932469	0.8597898626463428	-0.6829773074890598	0.7304395919273505	


0	0	0	0	0	0	0	0	
0.5873145951365827	0.8093587377297856	0.1456166338354891	0.9893410918133447	0.510648011932469	0.8597898626463428	-0.6407486559618711	0.7677507146744025	


0	0	0	0	0	0	0	0	
0.5873145951365827	0.8093587377297856	0.1456166338354891	0.9893410918133447	0.510648011932469	0.8597898626463428	-0.5811938166929052	0.8137651672552307	


0	0	0	0	0	0	0	0	
0.5873145951365827	0.8093587377297856	0.1456166338354891	0.9893410918133447	0.510648011932469	0.8597898626463428	-0.5511723112861615	0.8343914448695352	


0	0	0	0	0	0	0	0	
0.5873145951365827	0.8093587377297856	0.1456166338354891	0.9893410918133447	0.510648011932469	0.8597898626463428	-0.5239739162641033	0.8517343101430508	


0	0	0	0	0	0	0	0	
0.5873145951365827	0.8093587377297856	0.1456166338354891	0.9893410918133447	0.510648011932469	0.8597898626463428	-0.5057227745395626	0.8626960503630503	


0	0	0	0	0	0	0	0	
0.5873145951365827	0.8093587377297856	0.1456166338354891	0.9893410918133447	0.510648011932469	0.8597898626463428	-0.4220134693903665	0.9065895607457137	


0	0	0	0	0	0	0	0	
0.5873145951365827	0.8093587377297856	0.1456166338354891	0.9893410918133447	0.510648011932469	0.8597898626463428	-0.3379067232905776	0.9411796036650099	


0	0	0	0	0	0	0	0	
0.5873145951365827	0.8093587377297856	0.1456166338354891	0.9893410918133447	0.510648011932469	0.8597898626463428	-0.3090186146453091	0.9510559898358738	


0	0	0	0	0	0	0	0	
0.5873145951365827	0.8093587377297856	0.1456166338354891	0.9893410918133447	0.510648011932469	0.8597898626463428	-0.2181306786717043	0.975919569955548	


0	0	0	0	0	0	0	0	
0.5873145951365827	0.8093587377297856	0.1456166338354891	0.9893410918133447	0.510648011932469	0.8597898626463428	-0.14011272907856	0.9901355579667654	


0	0	0	0	0	0	0	0	
0.5873145951365827	0.8093587377297856	0.1456166338354891	0.9893410918133447	0.510648011932469	0.8597898626463428	-0.1521880710054586	0.9883515523555561	


0	0	0	0	0	0	0	0	
0.5873145951365827	0.8093587377297856	0.1456166338354891	0.9893410918133447	0.510648011932469	0.8597898626463428	-0.1700733932178391	0.9854313983831499	


0	0	0	0	0	0	0	0	
0.5873145951365827	0.8093587377297856	0.1456166338354891	0.9893410918133447	0.510648011932469	0.8597898626463428	-0.1587787433880732	0.9873141904419811	


0	0	0	0	0	0	0	0	
0.5873145951365827	0.8093587377297856	0.1456166338354891	0.9893410918133447	0.510648011932469	0.8597898626463428	-0.163602152796031	0.9865263988360899	


0	0	0	0	0	0	0	0	
0.5873145951365827	0.8093587377297856	0.1456166338354891	0.9893410918133447	0.510648011932469	0.8597898626463428	-0.1752181686802043	0.984529630516195	


0	0	0	0	0	0	0	0	
0.5873145951365827	0.8093587377297856	0.1456166338354891	0.9893410918133447	0.510648011932469	0.8597898626463428	-0.1745139806877966	0.9846546960963013	


0	0	0	0	0	0	0	0	
0.5873145951365827	0.8093587377297856	0.1456166338354891	0.9893410918133447	0.510648011932469	0.8597898626463428	-0.1088872454213547	0.9940541070709127	


0	0	0	0	0	0	0	0	
0.5873145951365827	0.8093587377297856	0.1456166338354891	0.9893410918133447	0.510648011932469	0.8597898626463428	-0.08683827080551765	0.9962224223151713	


0	0	0	0	0	0	0	0	
0.5873145951365827	0.8093587377297856	0.1456166338354891	0.9893410918133447	0.510648011932469	0.8597898626463428	-0.02250258432079716	0.9997467847904715	


0	0	0	0	0	0	0	0	
0.5873145951365827	0.8093587377297856	0.1456166338354891	0.9893410918133447	0.510648011932469	0.8597898626463428	0.04013514551727487	0.9991942604390335	


0	0	0	0	0	0	0	0	
0.5873145951365827	0.8093587377297856	0.1456166338354891	0.9893410918133447	0.510648011932469	0.8597898626463428	0.02128854575487381	0.9997733732299749	


0	0	0	0	0	0	0	0	
0.5873145951365827	0.8093587377297856	0.1456166338354891	0.9893410918133447	0.510648011932469	0.8597898626463428	0.08545583955551703	0.9963419591113594	


0	0	0	0	0	0	0	0	
0.5873145951365827	0.8093587377297856	0.1456166338354891	0.9893410918133447	0.510648011932469	0.8597898626463428	0.130131219568337	0.9914967804756892	


0	0	0	0	0	0	0	0	
0.5873145951365827	0.8093587377297856	0.1456166338354891	0.9893410918133447	0.510648011932469	0.8597898626463428	0.1050824766883419	0.9944635101867962	


0	0	0	0	0	0	0	0	
0.5873145951365827	0.8093587377297856	0.1456166338354891	0.9893410918133447	0.510648011932469	0.8597898626463428	0.09442541853850209	0.9955319383795924	


0	0	0	0	0	0	0	0	
0.5873145951365827	0.8093587377297856	0.1456166338354891	0.9893410918133447	0.510648011932469	0.8597898626463428	0.15950045335355	0.9871978552347103	


0	0	0	0	0	0	0	0	
0.5873145951365827	0.8093587377297856	0.1456166338354891	0.9893410918133447	0.510648011932469	0.8597898626463428	0.1894376320598385	0.9818927556304513	


0	0	0	0	0	0	0	0	
0.5873145951365827	0.8093587377297856	0.1456166338354891	0.9893410918133447	0.510648011932469	0.8597898626463428	0.1769178142042553	0.9842256281042414	


0	0	0	0	0	0	0	0	
0.5873145951365827	0.8093587377297856	0.1456166338354891	0.9893410918133447	0.510648011932469	0.8597898626463428	0.1238110298169609	0.9923058142002715	


0	0	0	0	0	0	0	0	
0.5873145951365827	0.8093587377297856	0.1456166338354891	0.9893410918133447	0.510648011932469	0.8597898626463428	0.0767487871288963	0.9970504619497668	


0	0	0	0	0	0	0	0	
0.5873145951365827	0.8093587377297856	0.1456166338354891	0.9893410918133447	0.510648011932469	0.8597898626463428	0.1209177445585777	0.9926625302945944	


0	0	0	0	0	0	0	0	
0.5873145951365827	0.8093587377297856	0.1456166338354891	0.9893410918133447	0.510648011932469	0.8597898626463428	0.07380660071551813	0.9972725734175286	


0	0	0	0	0	0	0	0	
0.5873145951365827	0.8093587377297856	0.1456166338354891	0.9893410918133447	0.510648011932469	0.8597898626463428	0.1338877131688079	0.99099650870345	


0	0	0	0	0	0	0	0	
0.5873145951365827	0.8093587377297856	0.1456166338354891	0.9893410918133447	0.510648011932469	0.8597898626463428	0.080773215372935	0.996732505579264	


0	0	0	0	0	0	0	0	
0.5873145951365827	0.8093587377297856	0.1456166338354891	0.9893410918133447	0.510648011932469	0.8597898626463428	0.1423641772635468	0.9898143467499717	


0	0	0	0	0	0	0	0	
0.5873145951365827	0.8093587377297856	0.1456166338354891	0.9893410918133447	0.510648011932469	0.8597898626463428	0.1641868443739109	0.9864292575418357	


0	0	0	0	0	0	0	0	
0.5873145951365827	0.8093587377297856	0.1456166338354891	0.9893410918133447	0.510648011932469	0.8597898626463428	0.1206863238855936	0.9926906926263495	


0	0	0	0	0	0	0	0	
0.5873145951365827	0.8093587377297856	0.1456166338354891	0.9893410918133447	0.510648011932469	0.8597898626463428	0.1587338056841426	0.987321416223222	


0	0	0	0	0	0	0	0	
0.5873145951365827	0.8093587377297856	0.1456166338354891	0.9893410918133447	0.510648011932469	0.8597898626463428	0.1169728204333292	0.9931351163260073	


0	0	0	0	0	0	0	0	
0.5873145951365827	0.8093587377297856	0.1456166338354891	0.9893410918133447	0.510648011932469	0.8597898626463428	0.0698522871895827	0.9975573457071949	


0	0	0	0	0	0	0	0	
0.5873145951365827	0.8093587377297856	0.1456166338354891	0.9893410918133447	0.510648011932469	0.8597898626463428	0.05620168418614938	0.9984194362564465	


0	0	0	0	0	0	0	0	
0.5873145951365827	0.8093587377297856	0.1456166338354891	0.9893410918133447	0.510648011932469	0.8597898626463428	0.1157285206443588	0.993280881477877	


0	0	0	0	0	0	0	0	
0.5873145951365827	0.8093587377297856	0.1456166338354891	0.9893410918133447	0.510648011932469	0.8597898626463428	0.1078255297313183	0.994169832140445	


0	0	0	0	0	0	0	0	
0.5873145951365827	0.8093587377297856	0.1456166338354891	0.9893410918133447	0.510648011932469	0.8597898626463428	0.1587854265041178	0.9873131156476679	


0	0	0	0	0	0	0	0	
0.5873145951365827	0.8093587377297856	0.1456166338354891	0.9893410918133447	0.510648011932469	0.8597898626463428	0.1798944092411127	0.9836859262609133	


0	0	0	0	0	0	0	0	
0.5873145951365827	0.8093587377297856	0.1456166338354891	0.9893410918133447	0.510648011932469	0.8597898626463428	0.168734092152872	0.9856616083349021	


0	0	0	0	0	0	0	0	
0.5873145951365827	0.8093587377297856	0.1456166338354891	0.9893410918133447	0.510648011932469	0.8597898626463428	0.1288781753707246	0.9916604337741386	


0	0	0	0	0	0	0	0	
0.5873145951365827	0.8093587377297856	0.1456166338354891	0.9893410918133447	0.510648011932469	0.8597898626463428	0.1989004308862556	0.9800197031658403	


0	0	0	0	0	0	0	0	
0.5873145951365827	0.8093587377297856	0.1456166338354891	0.9893410918133447	0.510648011932469	0.8597898626463428	0.1790570931252602	0.9838386846437437	


0	0	0	0	0	0	0	0	
0.5873145951365827	0.8093587377297856	0.1456166338354891	0.9893410918133447	0.510648011932469	0.8597898626463428	0.1514254587175365	0.9884686795504365	


0	0	0	0	0	0	0	0	
0.5873145951365827	0.8093587377297856	0.1456166338354891	0.9893410918133447	0.510648011932469	0.8597898626463428	0.1061547348745322	0.9943496227503271	


0	0	0	0	0	0	0	0	
0.5873145951365827	0.8093587377297856	0.1456166338354891	0.9893410918133447	0.510648011932469	0.8597898626463428	0.08970841018991181	0.9959680723503131	


0	0	0	0	0	0	0	0	
0.5873145951365827	0.8093587377297856	0.1456166338354891	0.9893410918133447	0.510648011932469	0.8597898626463428	0.1470248317103524	0.9891328014278682	


0	0	0	0	0	0	0	0	
0.5873145951365827	0.8093587377297856	0.1456166338354891	0.9893410918133447	0.510648011932469	0.8597898626463428	0.1283872018076396	0.9917241180953524	


0	0	0	0	0	0	0	0	
0.5873145951365827	0.8093587377297856	0.1456166338354891	0.9893410918133447	0.510648011932469	0.8597898626463428	0.1126939130741526	0.9936297509414839	


0	0	0	0	0	0	0	0	
0.5873145951365827	0.8093587377297856	0.1456166338354891	0.9893410918133447	0.510648011932469	0.8597898626463428	0.07254422770119759	0.9973651964186623	


0	0	0	0	0	0	0	0	
0.5873145951365827	0.8093587377297856	0.1456166338354891	0.9893410918133447	0.510648011932469	0.8597898626463428	0.03431699518084463	0.9994109984594717	


0	0	0	0	0	0	0	0	
0.5873145951365827	0.8093587377297856	0.1456166338354891	0.9893410918133447	0.5241488405588335	0.851626674629694	0.03431699518084463	0.9994109984594717	


0	0	0	0	0	0	0	0	
0.5873145951365827	0.8093587377297856	0.1456166338354891	0.9893410918133447	0.5241488405588335	0.851626674629694	0.02773197211406267	0.9996153949007912	


0	0	0	0	0	0	0	0	
0.5873145951365827	0.8093587377297856	0.1456166338354891	0.9893410918133447	0.5241488405588335	0.851626674629694	0.06543220824717524	0.9978570168736092	


0	0	0	0	0	0	0	0	
0.5873145951365827	0.8093587377297856	0.1456166338354891	0.9893410918133447	0.5241488405588335	0.851626674629694	0.06612241552391429	0.9978115183566898	


0	0	0	0	0	0	0	0	
0.5873145951365827	0.8093587377297856	0.1456166338354891	0.9893410918133447	0.5241488405588335	0.851626674629694	0.02842862340573439	0.999595825006915	


0	0	0	0	0	0	0	0	
0.5873145951365827	0.8093587377297856	0.1456166338354891	0.9893410918133447	0.5440983075017414	0.8390214727727417	0.02842862340573439	0.999595825006915	


0	0	0	0	0	0	0	0	
0.5873145951365827	0.8093587377297856	0.1456166338354891	0.9893410918133447	0.5673018731092543	0.8235099178314318	0.02842862340573439	0.999595825006915	


0	0	0	0	0	0	0	0	
0.5873145951365827	0.8093587377297856	0.1456166338354891	0.9893410918133447	0.5674386742888926	0.8234156610857386	0.02842862340573439	0.999595825006915	


0	0	0	0	0	0	0	0	
0.5873145951365827	0.8093587377297856	0.1456166338354891	0.9893410918133447	0.5674386742888926	0.8234156610857386	0.0004096158072555574	0.9999999161074418	


0	0	0	0	0	0	0	0	
0.5873145951365827	0.8093587377297856	0.1456166338354891	0.9893410918133447	0.5674386742888926	0.8234156610857386	-0.02184066609615401	0.9997614642025747	


0	0	0	0	0	0	0	0	
0.5873145951365827	0.8093587377297856	0.1456166338354891	0.9893410918133447	0.5826414065257167	0.8127293469548978	-0.02184066609615401	0.9997614642025747	


0	0	0	0	0	0	0	0	
0.5873145951365827	0.8093587377297856	0.1456166338354891	0.9893410918133447	0.596247242180611	0.8028008633478267	-0.02184066609615401	0.9997614642025747	


0	0	0	0	0	0	0	0	
0.5873145951365827	0.8093587377297856	0.1456166338354891	0.9893410918133447	0.596247242180611	0.8028008633478267	-0.0542973807044636	0.9985248091302662	


0	0	0	0	0	0	0	0	
0.5873145951365827	0.8093587377297856	0.1456166338354891	0.9893410918133447	0.5840367179242937	0.8117272399742533	-0.0542973807044636	0.9985248091302662	


0	0	0	0	0	0	0	0	
0.5873145951365827	0.8093587377297856	0.1456166338354891	0.9893410918133447	0.5840367179242937	0.8117272399742533	-0.06514840898048432	0.9978755858358854	


0	0	0	0	0	0	0	0	
0.5873145951365827	0.8093587377297856	0.1456166338354891	0.9893410918133447	0.5840367179242937	0.8117272399742533	-0.07922991862792367	0.9968563687885094	


0	0	0	0	0	0	0	0	
0.5873145951365827	0.8093587377297856	0.1456166338354891	0.9893410918133447	0.5840367179242937	0.8117272399742533	-0.08856466742141395	0.9960704290784534	


0	0	0	0	0	0	0	0	
0.5873145951365827	0.8093587377297856	0.1456166338354891	0.9893410918133447	0.6060606953939902	0.7954184015337796	-0.08856466742141395	0.9960704290784534	


0	0	0	0	0	0	0	0	
0.5873145951365827	0.8093587377297856	0.1456166338354891	0.9893410918133447	0.5914983449741129	0.8063062122375627	-0.08856466742141395	0.9960704290784534	


0	0	0	0	0	0	0	0	
0.5873145951365827	0.8093587377297856	0.1456166338354891	0.9893410918133447	0.5914983449741129	0.8063062122375627	-0.099178378780529	0.9950696705168267	


0	0	0	0	0	0	0	0	
0.5873145951365827	0.8093587377297856	0.1456166338354891	0.9893410918133447	0.5914983449741129	0.8063062122375627	-0.1072866646337738	0.9942281285458383	


0	0	0	0	0	0	0	0	
0.5873145951365827	0.8093587377297856	0.1456166338354891	0.9893410918133447	0.5914983449741129	0.8063062122375627	-0.1075597327388532	0.9941986239646213	


0	0	0	0	0	0	0	0	
0.5873145951365827	0.8093587377297856	0.1456166338354891	0.9893410918133447	0.5914983449741129	0.8063062122375627	-0.09706302916620094	0.9952782366600212	


0	0	0	0	0	0	0	0	
0.5873145951365827	0.8093587377297856	0.1456166338354891	0.9893410918133447	0.5914983449741129	0.8063062122375627	-0.1024273341558722	0.9947404893828949	


0	0	0	0	0	0	0	0	
0.5873145951365827	0.8093587377297856	0.1456166338354891	0.9893410918133447	0.5909993665338779	0.8066720205613649	-0.1024273341558722	0.9947404893828949	


0	0	0	0	0	0	0	0	
0.5873145951365827	0.8093587377297856	0.1456166338354891	0.9893410918133447	0.5780180135396412	0.8160240045633995	-0.1024273341558722	0.9947404893828949	


0	0	0	0	0	0	0	0	
0.5873145951365827	0.8093587377297856	0.1456166338354891	0.9893410918133447	0.5780180135396412	0.8160240045633995	-0.1236810737910249	0.9923220203068653	


0	0	0	0	0	0	0	0	
0.5873145951365827	0.8093587377297856	0.1456166338354891	0.9893410918133447	0.5780180135396412	0.8160240045633995	-0.1116292442053934	0.993749924195284	


0	0	0	0	0	0	0	0	
0.5873145951365827	0.8093587377297856	0.1340876942080483	0.9909694698939867	0.5780180135396412	0.8160240045633995	-0.1116292442053934	0.993749924195284	


0	0	0	0	0	0	0	0	
0.5873145951365827	0.8093587377297856	0.1340876942080483	0.9909694698939867	0.5780180135396412	0.8160240045633995	-0.1067815484462843	0.9942825055845114	


0	0	0	0	0	0	0	0	
0.5873145951365827	0.8093587377297856	0.1340876942080483	0.9909694698939867	0.5867664448767425	0.8097562220611266	-0.1067815484462843	0.9942825055845114	


0	0	0	0	0	0	0	0	
0.5873145951365827	0.8093587377297856	0.1340876942080483	0.9909694698939867	0.5801209640432199	0.8145303352715386	-0.1067815484462843	0.9942825055845114	


0	0	0	0	0	0	0	0	
0.5873145951365827	0.8093587377297856	0.1340876942080483	0.9909694698939867	0.5801209640432199	0.8145303352715386	-0.133119733781783	0.9910999629088214	


0	0	0	0	0	0	0	0	
0.5873145951365827	0.8093587377297856	0.1340876942080483	0.9909694698939867	0.5938558468376711	0.8045714593351623	-0.133119733781783	0.9910999629088214	


0	0	0	0	0	0	0	0	
0.5873145951365827	0.8093587377297856	0.112367240724957	0.993666746556339	0.5938558468376711	0.8045714593351623	-0.133119733781783	0.9910999629088214	


0	0	0	0	0	0	0	0	
0.5873145951365827	0.8093587377297856	0.112367240724957	0.993666746556339	0.5938558468376711	0.8045714593351623	-0.1528367848029256	0.9882514443253317	


0	0	0	0	0	0	0	0	
0.5873145951365827	0.8093587377297856	0.112367240724957	0.993666746556339	0.5938558468376711	0.8045714593351623	-0.1584855013597578	0.987361304618905	


0	0	0	0	0	0	0	0	
0.5873145951365827	0.8093587377297856	0.112367240724957	0.993666746556339	0.5938558468376711	0.8045714593351623	-0.1717037786424144	0.9851486245231817	


0	0	0	0	0	0	0	0	
0.5873145951365827	0.8093587377297856	0.112367240724957	0.993666746556339	0.5938558468376711	0.8045714593351623	-0.1897469219106855	0.9818330334763749	


0	0	0	0	0	0	0	0	
0.5873145951365827	0.8093587377297856	0.1391955456691062	0.9902649140840444	0.5938558468376711	0.8045714593351623	-0.1897469219106855	0.9818330334763749	


0	0	0	0	0	0	0	0	
0.5873145951365827	0.8093587377297856	0.1391955456691062	0.9902649140840444	0.6202022194483325	0.7844419717170686	-0.1897469219106855	0.9818330334763749	


0	0	0	0	0	0	0	0	
0.5873145951365827	0.8093587377297856	0.1391955456691062	0.9902649140840444	0.6258738556317606	0.7799243019913112	-0.1897469219106855	0.9818330334763749	


0	0	0	0	0	0	0	0	
0.5873145951365827	0.8093587377297856	0.1020783523494601	0.9947763617927496	0.6258738556317606	0.7799243019913112	-0.1897469219106855	0.9818330334763749	


0	0	0	0	0	0	0	0	
0.5873145951365827	0.8093587377297856	0.1020783523494601	0.9947763617927496	0.6258738556317606	0.7799243019913112	-0.1973438781055522	0.9803343275506886	


0	0	0	0	0	0	0	0	
0.5873145951365827	0.8093587377297856	0.1020783523494601	0.9947763617927496	0.6258738556317606	0.7799243019913112	-0.2107548227007086	0.9775389530389021	


0	0	0	0	0	0	0	0	
0.5873145951365827	0.8093587377297856	0.0829461776042916	0.9965540284504586	0.6258738556317606	0.7799243019913112	-0.2107548227007086	0.9775389530389021	


0	0	0	0	0	0	0	0	
0.5873145951365827	0.8093587377297856	0.04384853177523172	0.9990381905919095	0.6258738556317606	0.7799243019913112	-0.2107548227007086	0.9775389530389021	


0	0	0	0	0	0	0	0	
0.5873145951365827	0.8093587377297856	0.01306399206864334	0.9999146624143634	0.6258738556317606	0.7799243019913112	-0.2107548227007086	0.9775389530389021	


0	0	0	0	0	0	0	0	
0.5873145951365827	0.8093587377297856	0.01306399206864334	0.9999146624143634	0.628864982236742	0.7775145234118667	-0.2107548227007086	0.9775389530389021	


0	0	0	0	0	0	0	0	
0.5873145951365827	0.8093587377297856	0.01153249873576512	0.9999334985252317	0.628864982236742	0.7775145234118667	-0.2107548227007086	0.9775389530389021	


0	0	0	0	0	0	0	0	
0.5873145951365827	0.8093587377297856	-0.0006330421351181454	0.9999997996288075	0.628864982236742	0.7775145234118667	-0.2107548227007086	0.9775389530389021	


0	0	0	0	0	0	0	0	
0.5873145951365827	0.8093587377297856	-0.0006330421351181454	0.9999997996288075	0.628864982236742	0.7775145234118667	-0.2172260057796043	0.9761213359070887	


0	0	0	0	0	0	0	0	
0.5873145951365827	0.8093587377297856	-0.009633228151301892	0.9999535993811838	0.628864982236742	0.7775145234118667	-0.2172260057796043	0.9761213359070887	


0	0	0	0	0	0	0	0	
0.5873145951365827	0.8093587377297856	-0.008931632657245262	0.9999601121735187	0.628864982236742	0.7775145234118667	-0.2172260057796043	0.9761213359070887	


0	0	0	0	0	0	0	0	
0.5914623259272365	0.8063326342203592	-0.008931632657245262	0.9999601121735187	0.628864982236742	0.7775145234118667	-0.2172260057796043	0.9761213359070887	


0	0	0	0	0	0	0	0	
0.5914623259272365	0.8063326342203592	-0.008931632657245262	0.9999601121735187	0.6373230383005583	0.7705967459387206	-0.2172260057796043	0.9761213359070887	


0	0	0	0	0	0	0	0	
0.5914623259272365	0.8063326342203592	-0.008931632657245262	0.9999601121735187	0.6373230383005583	0.7705967459387206	-0.2188918816011585	0.9757491194815932	


0	0	0	0	0	0	0	0	
0.5914623259272365	0.8063326342203592	-0.008931632657245262	0.9999601121735187	0.6373230383005583	0.7705967459387206	-0.2125303972958239	0.9771544556646504	


0	0	0	0	0	0	0	0	
0.5882550925647804	0.8086754268998172	-0.008931632657245262	0.9999601121735187	0.6373230383005583	0.7705967459387206	-0.2125303972958239	0.9771544556646504	


0	0	0	0	0	0	0	0	
0.5882550925647804	0.8086754268998172	-0.004889506936247649	0.9999880462895145	0.6373230383005583	0.7705967459387206	-0.2125303972958239	0.9771544556646504	


0	0	0	0	0	0	0	0	
0.5638734299828917	0.8258612201570728	-0.004889506936247649	0.9999880462895145	0.6373230383005583	0.7705967459387206	-0.2125303972958239	0.9771544556646504	


0	0	0	0	0	0	0	0	
0.5638734299828917	0.8258612201570728	-0.004889506936247649	0.9999880462895145	0.6181760777808739	0.7860396534904934	-0.2125303972958239	0.9771544556646504	


0	0	0	0	0	0	0	0	
0.5638734299828917	0.8258612201570728	-0.004889506936247649	0.9999880462895145	0.622354076695369	0.7827358451103762	-0.2125303972958239	0.9771544556646504	


0	0	0	0	0	0	0	0	
0.5439635752195057	0.8391088301492324	-0.004889506936247649	0.9999880462895145	0.622354076695369	0.7827358451103762	-0.2125303972958239	0.9771544556646504	


0	0	0	0	0	0	0	0	
0.5439635752195057	0.8391088301492324	-0.004889506936247649	0.9999880462895145	0.6317447954341934	0.775176440200429	-0.2125303972958239	0.9771544556646504	


0	0	0	0	0	0	0	0	
0.5619222608949719	0.8271900463077897	-0.004889506936247649	0.9999880462895145	0.6317447954341934	0.775176440200429	-0.2125303972958239	0.9771544556646504	


0	0	0	0	0	0	0	0	
0.5619222608949719	0.8271900463077897	-0.004889506936247649	0.9999880462895145	0.6515244667639689	0.7586276222284065	-0.2125303972958239	0.9771544556646504	


0	0	0	0	0	0	0	0	
0.559253968838067	0.8289963801723566	-0.004889506936247649	0.9999880462895145	0.6515244667639689	0.7586276222284065	-0.2125303972958239	0.9771544556646504	


0	0	0	0	0	0	0	0	
0.559253968838067	0.8289963801723566	-0.004889506936247649	0.9999880462895145	0.6515244667639689	0.7586276222284065	-0.204470747415265	0.9788726747904667	


0	0	0	0	0	0	0	0	
0.559253968838067	0.8289963801723566	0.004101031739074511	0.9999915907339797	0.6515244667639689	0.7586276222284065	-0.204470747415265	0.9788726747904667	


0	0	0	0	0	0	0	0	
0.5451500284387969	0.8383385035253832	0.004101031739074511	0.9999915907339797	0.6515244667639689	0.7586276222284065	-0.204470747415265	0.9788726747904667	


0	0	0	0	0	0	0	0	
0.5451500284387969	0.8383385035253832	0.004101031739074511	0.9999915907339797	0.6369839390099512	0.770877072848432	-0.204470747415265	0.9788726747904667	


0	0	0	0	0	0	0	0	
0.5311257484508218	0.8472930067766135	0.004101031739074511	0.9999915907339797	0.6369839390099512	0.770877072848432	-0.204470747415265	0.9788726747904667	


0	0	0	0	0	0	0	0	
0.5311257484508218	0.8472930067766135	0.0003330499148507813	0.9999999445388756	0.6369839390099512	0.770877072848432	-0.204470747415265	0.9788726747904667	


0	0	0	0	0	0	0	0	
0.5311257484508218	0.8472930067766135	0.0003330499148507813	0.9999999445388756	0.6369839390099512	0.770877072848432	-0.2024522569166987	0.9792921339770554	


0	0	0	0	0	0	0	0	
0.5201898153283684	0.8540506753282489	0.0003330499148507813	0.9999999445388756	0.6369839390099512	0.770877072848432	-0.2024522569166987	0.9792921339770554	


0	0	0	0	0	0	0	0	
0.5201898153283684	0.8540506753282489	0.0003330499148507813	0.9999999445388756	0.6216722316241567	0.7832774964388041	-0.2024522569166987	0.9792921339770554	


0	0	0	0	0	0	0	0	
0.5201898153283684	0.8540506753282489	0.0003330499148507813	0.9999999445388756	0.6186933229224729	0.7856325936283122	-0.2024522569166987	0.9792921339770554	


0	0	0	0	0	0	0	0	
0.5201898153283684	0.8540506753282489	0.0003330499148507813	0.9999999445388756	0.6186933229224729	0.7856325936283122	-0.2165784966819584	0.9762652071926885	


0	0	0	0	0	0	0	0	
0.5201898153283684	0.8540506753282489	0.003676498671804154	0.9999932416559205	0.6186933229224729	0.7856325936283122	-0.2165784966819584	0.9762652071926885	


0	0	0	0	0	0	0	0	
0.5201898153283684	0.8540506753282489	-0.0011812845443318	0.9999993022831692	0.6186933229224729	0.7856325936283122	-0.2165784966819584	0.9762652071926885	


0	0	0	0	0	0	0	0	
0.5201898153283684	0.8540506753282489	-0.0011812845443318	0.9999993022831692	0.6186933229224729	0.7856325936283122	-0.218939490829512	0.9757384379818773	


0	0	0	0	0	0	0	0	
0.5201898153283684	0.8540506753282489	-0.0011812845443318	0.9999993022831692	0.6204651678261057	0.7842340055841257	-0.218939490829512	0.9757384379818773	


0	0	0	0	0	0	0	0	
0.5201898153283684	0.8540506753282489	-0.0011812845443318	0.9999993022831692	0.6204651678261057	0.7842340055841257	-0.2201979295982991	0.975455212606208	


0	0	0	0	0	0	0	0	
0.5201898153283684	0.8540506753282489	-0.0011812845443318	0.9999993022831692	0.6425280529815689	0.766262162142771	-0.2201979295982991	0.975455212606208	


0	0	0	0	0	0	0	0	
0.5201898153283684	0.8540506753282489	-0.01291789591813534	0.9999165605014492	0.6425280529815689	0.766262162142771	-0.2201979295982991	0.975455212606208	


0	0	0	0	0	0	0	0	
0.5201898153283684	0.8540506753282489	-0.01291789591813534	0.9999165605014492	0.6425280529815689	0.766262162142771	-0.2360366960335673	0.9717441423160509	


0	0	0	0	0	0	0	0	
0.5201898153283684	0.8540506753282489	-0.01291789591813534	0.9999165605014492	0.6425280529815689	0.766262162142771	-0.2350799113121334	0.971976046668579	


0	0	0	0	0	0	0	0	
0.5201898153283684	0.8540506753282489	-0.01291789591813534	0.9999165605014492	0.6583329493016252	0.7527268613938416	-0.2350799113121334	0.971976046668579	


0	0	0	0	0	0	0	0	
0.5199459266180142	0.8541991766522223	-0.01291789591813534	0.9999165605014492	0.6583329493016252	0.7527268613938416	-0.2350799113121334	0.971976046668579	


0	0	0	0	0	0	0	0	
0.5199459266180142	0.8541991766522223	-0.01934312705276175	0.9998129042154941	0.6583329493016252	0.7527268613938416	-0.2350799113121334	0.971976046668579	


0	0	0	0	0	0	0	0	
0.5257818467524865	0.8506194505332834	-0.01934312705276175	0.9998129042154941	0.6583329493016252	0.7527268613938416	-0.2350799113121334	0.971976046668579	


0	0	0	0	0	0	0	0	
0.5257818467524865	0.8506194505332834	-0.01934312705276175	0.9998129042154941	0.6675589583989139	0.7445569401069049	-0.2350799113121334	0.971976046668579	


0	0	0	0	0	0	0	0	
0.5257818467524865	0.8506194505332834	-0.0270427179237763	0.9996342788276595	0.6675589583989139	0.7445569401069049	-0.2350799113121334	0.971976046668579	


0	0	0	0	0	0	0	0	
0.5458705464144821	0.837869528361758	-0.0270427179237763	0.9996342788276595	0.6675589583989139	0.7445569401069049	-0.2350799113121334	0.971976046668579	


0	0	0	0	0	0	0	0	
0.5458705464144821	0.837869528361758	-0.01380627272111811	0.9999046888746697	0.6675589583989139	0.7445569401069049	-0.2350799113121334	0.971976046668579	


0	0	0	0	0	0	0	0	
0.5394887576546495	0.8419928030358946	-0.01380627272111811	0.9999046888746697	0.6675589583989139	0.7445569401069049	-0.2350799113121334	0.971976046668579	


0	0	0	0	0	0	0	0	
0.5394887576546495	0.8419928030358946	-0.01380627272111811	0.9999046888746697	0.6627084762460976	0.7488774769690804	-0.2350799113121334	0.971976046668579	


0	0	0	0	0	0	0	0	
0.5394887576546495	0.8419928030358946	-0.01380627272111811	0.9999046888746697	0.6627084762460976	0.7488774769690804	-0.2309784176243862	0.9729588740495327	


0	0	0	0	0	0	0	0	
0.5394887576546495	0.8419928030358946	-0.02053488621870405	0.9997891369923885	0.6627084762460976	0.7488774769690804	-0.2309784176243862	0.9729588740495327	


0	0	0	0	0	0	0	0	
0.5394887576546495	0.8419928030358946	-0.02053488621870405	0.9997891369923885	0.6627084762460976	0.7488774769690804	-0.2301483265330424	0.973155561970459	


0	0	0	0	0	0	0	0	
0.5394887576546495	0.8419928030358946	-0.02053488621870405	0.9997891369923885	0.6627084762460976	0.7488774769690804	-0.2265901071361644	0.9739902070082745	


0	0	0	0	0	0	0	0	
0.5491055293539034	0.8357530243038127	-0.02053488621870405	0.9997891369923885	0.6627084762460976	0.7488774769690804	-0.2265901071361644	0.9739902070082745	


0	0	0	0	0	0	0	0	
0.5491055293539034	0.8357530243038127	-0.0360460801046387	0.9993501288883141	0.6627084762460976	0.7488774769690804	-0.2265901071361644	0.9739902070082745	


0	0	0	0	0	0	0	0	
0.5491055293539034	0.8357530243038127	-0.0360460801046387	0.9993501288883141	0.6627084762460976	0.7488774769690804	-0.2337595884333959	0.9722944280491632	


0	0	0	0	0	0	0	0	
0.5491055293539034	0.8357530243038127	-0.0360460801046387	0.9993501288883141	0.6712487769915151	0.7412321359651072	-0.2337595884333959	0.9722944280491632	


0	0	0	0	0	0	0	0	
0.5397645289944122	0.8418160447742965	-0.0360460801046387	0.9993501288883141	0.6712487769915151	0.7412321359651072	-0.2337595884333959	0.9722944280491632	


0	0	0	0	0	0	0	0	
0.5397645289944122	0.8418160447742965	-0.04077974248038351	0.9991681603229926	0.6712487769915151	0.7412321359651072	-0.2337595884333959	0.9722944280491632	


0	0	0	0	0	0	0	0	
0.5397645289944122	0.8418160447742965	-0.04077974248038351	0.9991681603229926	0.6752695427322131	0.7375710438040718	-0.2337595884333959	0.9722944280491632	


0	0	0	0	0	0	0	0	
0.5397645289944122	0.8418160447742965	-0.04077974248038351	0.9991681603229926	0.6885039686749201	0.725232573123191	-0.2337595884333959	0.9722944280491632	


0	0	0	0	0	0	0	0	
0.5397645289944122	0.8418160447742965	-0.04077974248038351	0.9991681603229926	0.6885039686749201	0.725232573123191	-0.2487703986871364	0.9685624857163544	


0	0	0	0	0	0	0	0	
0.5341645342017902	0.8453805358541114	-0.04077974248038351	0.9991681603229926	0.6885039686749201	0.725232573123191	-0.2487703986871364	0.9685624857163544	


0	0	0	0	0	0	0	0	
0.5243413803196699	0.8515081425825964	-0.04077974248038351	0.9991681603229926	0.6885039686749201	0.725232573123191	-0.2487703986871364	0.9685624857163544	


0	0	0	0	0	0	0	0	
0.5243413803196699	0.8515081425825964	-0.04077974248038351	0.9991681603229926	0.6968226767042183	0.7172434434909589	-0.2487703986871364	0.9685624857163544	


0	0	0	0	0	0	0	0	
0.532578481228854	0.8463806243835967	-0.04077974248038351	0.9991681603229926	0.6968226767042183	0.7172434434909589	-0.2487703986871364	0.9685624857163544	


0	0	0	0	0	0	0	0	
0.532578481228854	0.8463806243835967	-0.04077974248038351	0.9991681603229926	0.6968226767042183	0.7172434434909589	-0.2509627617078763	0.967996741851932	


0	0	0	0	0	0	0	0	
0.532578481228854	0.8463806243835967	-0.04077974248038351	0.9991681603229926	0.6945537239039429	0.7194408416340884	-0.2509627617078763	0.967996741851932	


0	0	0	0	0	0	0	0	
0.532578481228854	0.8463806243835967	-0.04077974248038351	0.9991681603229926	0.7062825511266563	0.7079300516110488	-0.2509627617078763	0.967996741851932	


0	0	0	0	0	0	0	0	
0.532578481228854	0.8463806243835967	-0.04077974248038351	0.9991681603229926	0.714020123471182	0.7001251768635364	-0.2509627617078763	0.967996741851932	


0	0	0	0	0	0	0	0	
0.532578481228854	0.8463806243835967	-0.05077576592451766	0.9987100788491016	0.714020123471182	0.7001251768635364	-0.2509627617078763	0.967996741851932	


0	0	0	0	0	0	0	0	
0.532578481228854	0.8463806243835967	-0.06510319629862805	0.9978785366123987	0.714020123471182	0.7001251768635364	-0.2509627617078763	0.967996741851932	


0	0	0	0	0	0	0	0	
0.5478249067379749	0.8365930142892236	-0.06510319629862805	0.9978785366123987	0.714020123471182	0.7001251768635364	-0.2509627617078763	0.967996741851932	


0	0	0	0	0	0	0	0	
0.5470906819604692	0.8370733454793724	-0.06510319629862805	0.9978785366123987	0.714020123471182	0.7001251768635364	-0.2509627617078763	0.967996741851932	


0	0	0	0	0	0	0	0	
0.5470906819604692	0.8370733454793724	-0.06510319629862805	0.9978785366123987	0.7136365788272219	0.7005161192719112	-0.2509627617078763	0.967996741851932	


0	0	0	0	0	0	0	0	
0.5363105409204906	0.8440207365329189	-0.06510319629862805	0.9978785366123987	0.7136365788272219	0.7005161192719112	-0.2509627617078763	0.967996741851932	


0	0	0	0	0	0	0	0	
0.5363105409204906	0.8440207365329189	-0.06510319629862805	0.9978785366123987	0.7136365788272219	0.7005161192719112	-0.2441630786117885	0.9697341857657765	


